//this file was generated by export_model_to_header.ipynb

#define NUM_FEATS 30
#define NUM_HIDDEN_NEURONS 3

float W0[NUM_FEATS][NUM_HIDDEN_NEURONS] = 
{
	{-0.055168193, 0.7247296, -0.3469058},
	{-0.26667628, 0.18495864, -0.48184168},
	{-0.5043655, 0.51343864, -0.13316196},
	{-0.41880977, 0.85686952, -0.3669337},
	{-0.2396995, 0.18809393, -0.28684631},
	{0.030334953, 0.24104527, -0.27806959},
	{-0.66298884, 0.28296372, -0.072476692},
	{-0.49185848, 0.50465435, -0.29485181},
	{-0.0038454204, 0.33792859, 0.011644135},
	{0.35029513, -0.31610233, -0.22065136},
	{-0.55987078, 0.23827673, -0.3678124},
	{-0.023981903, 0.028595433, 0.26129243},
	{0.11762618, 0.44441155, -0.51408875},
	{-0.704252, 0.3483505, -0.18393436},
	{0.33314368, -0.39272419, -0.18009509},
	{0.011814253, 0.33572254, 0.5119471},
	{-0.1496115, 0.12785344, 0.1812263},
	{-0.28910145, 0.028884802, -0.067486659},
	{0.19602861, -0.10289306, 0.13464627},
	{0.063133128, -0.099422373, 0.55787349},
	{-0.37049145, 1.1407667, -0.84744787},
	{-0.76934481, 0.74014926, -0.24610534},
	{-0.82375723, 0.94322002, -0.23126046},
	{-0.81064022, 0.2908507, -0.26671082},
	{-0.1753125, 0.7726503, -0.45125866},
	{-0.53590608, 0.18586375, -0.18335858},
	{-0.66739446, 0.33034647, -0.0028702547},
	{-0.13167112, 0.40254942, -0.29711288},
	{-0.080777727, 0.47975951, -0.36057812},
	{-0.050413966, 0.1024442, 0.21230733},
};

float W1[NUM_HIDDEN_NEURONS] = {0.39595342, -0.10262077, 0.14804737};

float W2[NUM_HIDDEN_NEURONS] = {1.1789722, -1.0011952, 0.8324033};

float W3 = 0.004202093;

float mu[NUM_FEATS] = {14.127291739894563, 19.28964850615117, 91.969033391915659, 654.88910369068572, 0.096360281195079001, 0.10434098418277686, 0.088799315817223223, 0.048919145869947236, 0.181161862917399, 0.062797609841827778, 0.40517205623901609, 1.2168534270650269, 2.8660592267135288, 40.337079086116027, 0.0070409789103690707, 0.025478138840070306, 0.031893716344463946, 0.011796137082601056, 0.020542298769771532, 0.0037949038664323383, 16.269189806678394, 25.677223198594014, 107.2612126537786, 880.58312829525448, 0.13236859402460469, 0.25426504393673144, 0.27218848330404205, 0.11460622319859404, 0.29007557117750454, 0.083945817223198549};

float sigma[NUM_FEATS] = {3.5209507607110626, 4.297254637090421, 24.277619293053174, 351.60475406322979, 0.014051764066591201, 0.052766329125355158, 0.079649725346031874, 0.038768732461474747, 0.027390180864268528, 0.0070541558815373452, 0.27706894152536543, 0.551163426903576, 2.0200770991455239, 45.451013415639935, 0.0029998783671144774, 0.017892435868281951, 0.030159523121970455, 0.0061648607464716981, 0.0082591043875881367, 0.0026437447504047366, 4.8289925760607728, 6.1408543185890032, 33.573001566825923, 568.85645895326718, 0.022812356935544641, 0.15719817109455367, 0.20844087461170607, 0.065674554511193181, 0.061813078544554818, 0.018045389308594995};

float thresh = 0.9;