//this file was generated by export_model_to_header.ipynb

#define NUM_FEATS 30
#define NUM_HIDDEN_NEURONS 3

float W0[NUM_FEATS][NUM_HIDDEN_NEURONS] = 
{
	{-0.6938442, -0.53698725, -0.5994795},
	{-0.58322, 0.20177867, -0.47127163},
	{-0.5040017, -0.5858114, -0.48896265},
	{-0.09075191, -0.35167488, -0.5033575},
	{-0.4268527, -0.25640935, -0.25889924},
	{0.11849166, 0.068008326, 0.08072408},
	{-0.0519348, -0.045620915, -0.41133207},
	{-0.8058581, -0.0728469, -0.062252812},
	{-0.55270284, 0.17199321, -0.22923246},
	{-0.21212701, 0.064987734, 0.4976266},
	{-0.13836347, -0.0734936, -0.35114923},
	{0.054687284, -0.07503259, 0.19074333},
	{-0.42838204, -0.32593042, -0.7600531},
	{-0.5486996, -0.44138023, -0.7746761},
	{-0.09275795, 0.0035668777, 0.21531542},
	{-0.28103852, -0.18764025, 0.2678238},
	{-0.41851577, 0.20216289, -0.17640534},
	{-0.06713138, 0.30204567, 0.2768587},
	{0.19183582, 0.35341382, -0.10257768},
	{-0.20237827, 0.4021559, 0.12775715},
	{-0.50029904, -0.1417621, -0.32088247},
	{-0.72459257, -0.021103572, -0.6459413},
	{-0.10622357, -0.3637477, -0.5951947},
	{-0.65911055, -0.023017395, -0.3963681},
	{-0.10868437, -0.43513626, -0.3531749},
	{0.09782451, 0.17974241, -0.1250486},
	{-0.31569684, 0.22009982, -0.4333663},
	{-0.122507885, -0.2628122, -0.27511638},
	{-0.16438606, -0.38831505, -0.07218952},
	{-0.35214278, -0.1597495, -0.2124743},
};

float W1[NUM_HIDDEN_NEURONS] = {-0.039819706, 0.065939985, 0.6077764};

float W2[NUM_HIDDEN_NEURONS] = {0.7223519, 0.60283864, 1.4925317};

float W3 = -2.1003766;

float mu[NUM_FEATS] = {14.127291739894563, 19.28964850615117, 91.96903339191566, 654.8891036906857, 0.096360281195079, 0.10434098418277686, 0.08879931581722322, 0.048919145869947236, 0.181161862917399, 0.06279760984182778, 0.4051720562390161, 1.2168534270650269, 2.8660592267135288, 40.33707908611603, 0.007040978910369071, 0.025478138840070306, 0.031893716344463946, 0.011796137082601056, 0.020542298769771532, 0.0037949038664323383, 16.269189806678394, 25.677223198594014, 107.2612126537786, 880.5831282952545, 0.13236859402460469, 0.25426504393673144, 0.27218848330404205, 0.11460622319859404, 0.29007557117750454, 0.08394581722319855};

float sigma[NUM_FEATS] = {3.5209507607110626, 4.297254637090421, 24.277619293053174, 351.6047540632298, 0.014051764066591201, 0.05276632912535516, 0.07964972534603187, 0.03876873246147475, 0.02739018086426853, 0.007054155881537345, 0.27706894152536543, 0.551163426903576, 2.020077099145524, 45.451013415639935, 0.0029998783671144774, 0.01789243586828195, 0.030159523121970455, 0.006164860746471698, 0.008259104387588137, 0.0026437447504047366, 4.828992576060773, 6.140854318589003, 33.57300156682592, 568.8564589532672, 0.02281235693554464, 0.15719817109455367, 0.20844087461170607, 0.06567455451119318, 0.06181307854455482, 0.018045389308594995};

float thresh = 0.9;